{
  "decisionPolicy": {
    "confirmationHits": 1,
    "cooldownSeconds": 2,
    "duplicateSuppressionSeconds": 4,
    "threshold": 0.2
  },
  "detectorFormat": "waker-temporal-conv-registration-v1",
  "embeddingDim": 96,
  "head": {
    "accelScale": 0.1,
    "classifierBias": -1.2878767251968384,
    "classifierWeight": [
      -1.900072455406189,
      6.81746244430542,
      -7.195539951324463,
      3.89390230178833,
      2.568720817565918,
      -2.28973126411438,
      -18.453773498535156,
      -0.01845516636967659,
      0.8703747987747192,
      -0.5410488843917847,
      0.8471776247024536,
      0.2520385980606079,
      -0.07820361107587814,
      1.9712692499160767,
      1.030274748802185,
      10.192243576049805,
      0.037453871220350266,
      0,
      7.337371349334717,
      -1.1281338930130005,
      -5.7437944412231445,
      -11.915437698364258,
      0,
      -1.677464246749878,
      0,
      4.868758678436279,
      -4.368966579437256,
      -1.1891485452651978,
      -0.3566841781139374,
      10.327949523925781,
      -13.914034843444824,
      -0.08130161464214325,
      7.639180660247803,
      0.23313096165657043,
      0,
      -3.2958626747131348,
      7.462957859039307,
      8.550670623779297,
      3.035780906677246,
      -0.5819112062454224,
      1.923057198524475,
      -1.8668513298034668,
      17.529760360717773,
      -2.952808380126953,
      12.698650360107422,
      -3.220029830932617,
      -1.7265994548797607,
      -7.454724311828613,
      -0.6767640709877014,
      -6.239977836608887,
      1.711897850036621,
      4.484368324279785,
      -0.06981611996889114,
      1.5439248085021973,
      -10.822685241699219,
      0,
      1.3990566730499268,
      0,
      -14.366774559020996,
      -4.044517517089844,
      3.4383506774902344,
      3.5104517936706543,
      -3.1910274028778076,
      -6.4367547035217285,
      -4.917263507843018,
      0,
      -2.978520393371582,
      2.577834129333496,
      2.5693581104278564,
      0,
      -2.139070987701416,
      0,
      -0.9318601489067078,
      3.480468511581421,
      10.398209571838379,
      0,
      -1.8540209531784058,
      -0.9936651587486267,
      -0.14441628754138947,
      2.4616105556488037,
      -9.679337501525879,
      -6.9069132804870605,
      -3.7807767391204834,
      -5.266495227813721,
      -2.993250608444214,
      -4.142848491668701,
      -8.737937927246094,
      1.7070977687835693,
      0.46010780334472656,
      -2.9324123859405518,
      -7.0667948722839355,
      -2.7181594371795654,
      1.787482500076294,
      5.71160364151001,
      0,
      0.1174069195985794,
      -5.357524394989014,
      -8.296984672546387,
      0.638045072555542,
      5.941568851470947,
      -4.044466972351074,
      -0.4936392307281494,
      2.18302059173584,
      -3.5060997009277344,
      -0.8269804120063782,
      -0.6803510189056396,
      -5.4184956550598145,
      -6.731869697570801,
      -5.339972019195557,
      3.7090070247650146,
      1.638298511505127,
      8.127669334411621,
      1.0260907411575317,
      5.258272647857666,
      -0.3505411148071289,
      3.8991641998291016,
      0.20806676149368286,
      4.193515300750732,
      0.7652080059051514,
      7.98722505569458,
      7.5607123374938965,
      11.160970687866211,
      8.245622634887695,
      -5.005725383758545,
      -0.5720345973968506,
      0.38567137718200684,
      -1.331904411315918,
      1.3329250812530518,
      -0.016646968200802803,
      0.08775318413972855,
      0.09761279076337814,
      0.22552937269210815,
      0.2742067575454712,
      0.1363002508878708,
      -0.24856877326965332,
      -0.010478093288838863,
      0.2185612916946411,
      -0.14689823985099792,
      -0.32841068506240845,
      -0.028752055019140244,
      -0.024593453854322433,
      0.007593983318656683,
      0.21901105344295502,
      -0.12438724935054779,
      0.012591300532221794,
      0,
      0.0523487851023674,
      -0.03522979095578194,
      -0.000706745486240834,
      0.0008984319283626974,
      0,
      -0.2957034707069397,
      0,
      -0.08433739095926285,
      -0.1393941193819046,
      0.19441105425357819,
      -0.0356275737285614,
      -0.05780954286456108,
      0.20230510830879211,
      -0.221637561917305,
      0.2934475243091583,
      -0.005002651363611221,
      0,
      -0.17652393877506256,
      0.16338904201984406,
      0.13786768913269043,
      0.002349698916077614,
      -0.018050670623779297,
      -0.08658792078495026,
      -0.05147364363074303,
      0.1018516793847084,
      0.056973230093717575,
      -0.3092418611049652,
      -0.03744341805577278,
      -0.28853508830070496,
      -0.19500623643398285,
      -0.057216376066207886,
      -0.05595523118972778,
      0.03781476989388466,
      0.032640490680933,
      -0.04401548206806183,
      0.054976917803287506,
      -0.24777351319789886,
      0,
      0.2915465533733368,
      0,
      -0.03753998130559921,
      0.007059753406792879,
      0.3800012767314911,
      0.20722131431102753,
      0.028633765876293182,
      -0.17158614099025726,
      0.05030123516917229,
      0,
      0.029722681269049644,
      -0.15963925421237946,
      0.13152733445167542,
      0,
      -0.04944383352994919,
      0,
      0.09976886212825775,
      -0.18526524305343628,
      -0.09613240510225296,
      0,
      -0.04419950023293495,
      -0.1458403617143631,
      -0.03452885523438454,
      -0.09312444180250168,
      -0.12482457607984543,
      -0.17145000398159027,
      -0.03363557904958725,
      0.11633752286434174,
      0.017154330387711525,
      -0.07886862754821777,
      -0.06190134584903717,
      0.0184968039393425,
      -0.009242812171578407,
      -0.05210651084780693,
      0.009850308299064636,
      0.24919360876083374,
      -0.19019107520580292,
      -0.05049445107579231,
      0,
      -0.0012147913221269846,
      0.010792539454996586,
      0.02994348667562008,
      -0.16711455583572388,
      0.011831715703010559,
      -0.021405670791864395,
      -0.03274111822247505,
      -0.3012147545814514,
      -0.046772465109825134,
      -0.28000691533088684,
      0.16380572319030762,
      0.04973803088068962,
      -0.2712865471839905,
      0.030520692467689514,
      0.0056527601554989815,
      -0.025112854316830635,
      0.15632176399230957,
      -0.04351838305592537,
      0.003161926753818989,
      -0.048275742679834366,
      0.1047503650188446,
      -0.16449101269245148,
      0.024649884551763535,
      -0.019071578979492188,
      -0.04766235500574112,
      0.15430998802185059,
      -0.04355808347463608,
      0.14650924503803253,
      -0.04689148813486099,
      0.1525249183177948,
      -0.019344870001077652,
      0.2249525785446167,
      -0.04290607199072838
    ],
    "dilations": [
      1,
      2,
      4
    ],
    "edgeScale": 0.25,
    "hiddenWidth": 128,
    "implementation": "temporal-conv",
    "smoothScale": 0.6
  },
  "keyword": "operator",
  "registrationConfig": {
    "candidateAdapters": [
      "single-ator-polysyllabic",
      "single-open-vowel-polysyllabic-scale2",
      "single-sibilant-bisyllabic",
      "single-nasal-onset-scale2"
    ],
    "hardNegativePhrases": [
      "navigator",
      "terminator"
    ],
    "positivePhrases": [
      "operator"
    ]
  },
  "schemaVersion": 1,
  "sequenceLength": 49,
  "temperature": {
    "temperature": 0.5,
    "validationLoss": 0.0026937973191391447
  },
  "wEffective": {
    "data": [
      1.005350112915039,
      -0.001696010702289641,
      -0.004506902769207954,
      -0.003241080790758133,
      -0.006728742271661758,
      0.000478244386613369,
      -0.006856206804513931,
      0.0024695240426808596,
      0.007479910273104906,
      0.001031288644298911,
      0.002198286820203066,
      0.0012719470541924238,
      -0.00590780982747674,
      0.001740267500281334,
      -0.0040840874426066875,
      0.008315769955515862,
      0.0014680820750072598,
      -0.0007585631683468819,
      -0.006284896284341812,
      -0.007692545652389526,
      -0.0008884258568286896,
      -0.011977617628872395,
      0.004244173876941204,
      0.0021468105260282755,
      0.0013157217763364315,
      0.005693845916539431,
      0.005905305966734886,
      0.0005296624731272459,
      0.0023479319643229246,
      -0.007519453298300505,
      -0.0029506792780011892,
      0.0018700493965297937,
      0.007602219469845295,
      0.0023390816058963537,
      0.00020246306667104363,
      -0.0032370351254940033,
      0.0005637615686282516,
      -0.0009598491596989334,
      -0.00015739165246486664,
      -0.00029091828037053347,
      -0.0008097438840195537,
      -0.009078916162252426,
      -0.0036814864724874496,
      0.008628960698843002,
      -0.001960943453013897,
      0.013993341475725174,
      -0.014400492422282696,
      0.0001872136490419507,
      0.0016497287433594465,
      0.0024036034010350704,
      0.004924977198243141,
      0.0005892391200177372,
      0.0017612599767744541,
      -0.0020616422407329082,
      0.002935483818873763,
      0.0016628128942102194,
      0.0025195267517119646,
      -0.011612484231591225,
      -0.000529575627297163,
      0.003146558301523328,
      -0.0020192237570881844,
      -0.004621296189725399,
      0.00508037768304348,
      0.00992976687848568,
      -0.006046946160495281,
      -0.007841438055038452,
      -0.004472989588975906,
      0.0025918278843164444,
      -0.00035274005495011806,
      -0.004752493929117918,
      -0.001563437981531024,
      0.003006571438163519,
      0.002550629200413823,
      0.00302878231741488,
      -0.00982758216559887,
      0.0031649598386138678,
      0.010419980622828007,
      0.004772617947310209,
      -0.005714014638215303,
      -0.0009636818431317806,
      -0.011164437979459763,
      -0.0029969271272420883,
      -0.002350903581827879,
      -0.0014357040636241436,
      0.000007661059498786926,
      -0.004445710219442844,
      -0.00843978114426136,
      -0.003309437073767185,
      0.005228170193731785,
      0.0052262647077441216,
      -0.00899740681052208,
      0.0011396389454603195,
      0.0023740725591778755,
      0.009604666382074356,
      -0.0018541986355558038,
      0.003670001868158579,
      -0.001696010702289641,
      1.000555396080017,
      0.00147334486246109,
      0.0009732582839205861,
      0.0022217086516320705,
      -0.0005802246159873903,
      0.0017768184188753366,
      -0.00042271375423297286,
      -0.0021863360889256,
      -0.0006783826975151896,
      -0.0006112884730100632,
      -0.000560320564545691,
      0.0019185282289981842,
      -0.0005702503840439022,
      0.0012899960856884718,
      -0.0027501340955495834,
      -0.0006545608048327267,
      0.00016777288692537695,
      0.002529553137719631,
      0.002365389373153448,
      0.00026271885144524276,
      0.00382665591314435,
      -0.001637806766666472,
      -0.0010524881072342396,
      -0.0009426897158846259,
      -0.0020321630872786045,
      -0.002182738156989217,
      -0.0006142831407487392,
      -0.0011323506478220224,
      0.002400389639660716,
      0.0013677026145160198,
      -0.0006028465577401221,
      -0.0019166073761880398,
      -0.00035661522997543216,
      0.00005067564779892564,
      0.0015822295099496841,
      0.000006557005690410733,
      0.00024203868815675378,
      0.00029254172113724053,
      0.00023151555797085166,
      0.0004431478737387806,
      0.0028517914470285177,
      0.0015101957833394408,
      -0.0029060703236609697,
      0.00035559418029151857,
      -0.0037814839743077755,
      0.0045659542083740234,
      -0.00026149474433623254,
      -0.00035819626646116376,
      -0.00032441108487546444,
      -0.0010622884146869183,
      -0.00005295162554830313,
      -0.0005504083237610757,
      0.00041403164505027235,
      -0.0007618698291480541,
      -0.0004957318888045847,
      -0.0008393278694711626,
      0.003164615947753191,
      0.00025813421234488487,
      -0.0008154190727509558,
      0.0008742245263420045,
      0.001815331750549376,
      -0.001576923532411456,
      -0.0033064507879316807,
      0.0020723394118249416,
      0.0027131526730954647,
      0.0018822537967935205,
      -0.0003777851816266775,
      0.000334990763803944,
      0.0013294104719534516,
      0.0004536653286777437,
      -0.001140570268034935,
      -0.0009021910955198109,
      -0.0010898435721173882,
      0.0029829703271389008,
      -0.0008904905989766121,
      -0.003410393837839365,
      -0.0013471072306856513,
      0.001654595136642456,
      0.00038731872336938977,
      0.00370942335575819,
      0.0008864462142810225,
      0.0007789701339788735,
      0.000053628755267709494,
      0.0004318539868108928,
      0.0017090863548219204,
      0.002735758665949106,
      0.001374737243168056,
      -0.001275329035706818,
      -0.0016306983307003975,
      0.002984464168548584,
      -0.0004523726529441774,
      -0.0010706798639148474,
      -0.002581903710961342,
      0.0008233215194195509,
      -0.0011132672661915421,
      -0.004506902769207954,
      0.00147334486246109,
      1.003907561302185,
      0.0025954279117286205,
      0.0058888946659862995,
      -0.0014695439022034407,
      0.004788542632013559,
      -0.0011840593069791794,
      -0.005841041915118694,
      -0.0017434005858376622,
      -0.00163884530775249,
      -0.001462459797039628,
      0.005090484395623207,
      -0.0015122201293706894,
      0.003428759053349495,
      -0.007288830354809761,
      -0.0017074797069653869,
      0.0004580958338920027,
      0.00663126353174448,
      0.006298010237514973,
      0.0007013270515017211,
      0.010163744911551476,
      -0.004302892833948135,
      -0.002734075766056776,
      -0.00241637509316206,
      -0.005361834075301886,
      -0.005747870542109013,
      -0.0015570532996207476,
      -0.0029435809701681137,
      0.00637585436925292,
      0.0035615202505141497,
      -0.0016002811025828123,
      -0.005176325794309378,
      -0.0010125871049240232,
      0.00011528452159836888,
      0.004110715817660093,
      -0.00001383491326123476,
      0.0006536818691529334,
      0.000736445770598948,
      0.0005917162634432316,
      0.0011461400426924229,
      0.007582635618746281,
      0.003955221269279718,
      -0.007693649269640446,
      0.0009898222051560879,
      -0.010159144178032875,
      0.01213317271322012,
      -0.0006607765099033713,
      -0.000979653443209827,
      -0.0009358939714729786,
      -0.0029070526361465454,
      -0.00016329268692061305,
      -0.0014639627188444138,
      0.0011406377889215946,
      -0.0020530144684016705,
      -0.0013226279988884926,
      -0.0022235314827412367,
      0.008496643975377083,
      0.0006707246648147702,
      -0.0021975685376673937,
      0.002283618785440922,
      0.004764857701957226,
      -0.004196100868284702,
      -0.008759620599448681,
      0.005480702966451645,
      0.007171426899731159,
      0.004923468455672264,
      -0.00107879051938653,
      0.000852534081786871,
      0.0035625952295958996,
      0.0012126247165724635,
      -0.0029992626514285803,
      -0.0023816386237740517,
      -0.0028742109425365925,
      0.007949133403599262,
      -0.002385377651080489,
      -0.009044518694281578,
      -0.003607712918892503,
      0.004423287231475115,
      0.0010154349729418755,
      0.009828507900238037,
      0.0023663255851715803,
      0.002064305590465665,
      0.00021025119349360466,
      0.001074313884600997,
      0.004491060506552458,
      0.007259689271450043,
      0.003598216688260436,
      -0.0034534481819719076,
      -0.004337728954851627,
      0.007908452302217484,
      -0.0011867410503327847,
      -0.0027915015816688538,
      -0.006939103361219168,
      0.0021481134463101625,
      -0.002966797910630703,
      -0.003241080790758133,
      0.0009732582839205861,
      0.0025954279117286205,
      1.0021263360977173,
      0.0038085344713181257,
      0.0010024562943726778,
      0.005348755046725273,
      -0.0025815709959715605,
      -0.00508804339915514,
      0.0004348460352048278,
      -0.0015895699616521597,
      -0.000296836718916893,
      0.0034407195635139942,
      -0.0009981361217796803,
      0.002487978432327509,
      -0.004693491384387016,
      -0.0003189761773683131,
      0.0006786396843381226,
      0.002187467645853758,
      0.004880265332758427,
      0.0005951765342615545,
      0.007165738381445408,
      -0.0016894034342840314,
      -0.00017912429757416248,
      0.000787526136264205,
      -0.002764068078249693,
      -0.002640306483954191,
      0.001024846569634974,
      -0.0002523980801925063,
      0.004504486918449402,
      0.0004840162582695484,
      -0.001102509442716837,
      -0.006092158146202564,
      -0.0025771616492420435,
      -0.00046889582881703973,
      0.00028440356254577637,
      -0.0009000222780741751,
      0.0007690410711802542,
      -0.0006361644482240081,
      -0.0002437028451822698,
      -0.00007161020766943693,
      0.005578601732850075,
      0.001195532619021833,
      -0.004712413065135479,
      0.001989814219996333,
      -0.01044925395399332,
      0.008720073848962784,
      0.0004960038349963725,
      -0.0014960409607738256,
      -0.0027749896980822086,
      -0.0044874087907373905,
      -0.0007604047423228621,
      -0.0010907304240390658,
      0.001970876706764102,
      -0.00228667538613081,
      -0.0011018465738743544,
      -0.0014036905486136675,
      0.00859145075082779,
      0.00004869030090048909,
      -0.0024548142682760954,
      0.0005173156969249249,
      0.0017430620500817895,
      -0.0031785923056304455,
      -0.005536472424864769,
      0.0031942795030772686,
      0.0040643541142344475,
      0.0013097478076815605,
      -0.002907982561737299,
      -0.0004591165343299508,
      0.0034128068946301937,
      0.0010734995594248176,
      -0.0012560158502310514,
      -0.0012627423275262117,
      -0.0014436196070164442,
      0.0063521065749228,
      -0.0022572309244424105,
      -0.005988536402583122,
      -0.0033908772747963667,
      0.0039337994530797005,
      0.00033705454552546144,
      0.0062494538724422455,
      0.0020070564933121204,
      0.001322361407801509,
      0.0020800328347831964,
      -0.0013138600625097752,
      0.0017891953466460109,
      0.004930455237627029,
      0.0010229753097519279,
      -0.004318566061556339,
      -0.0032442668452858925,
      0.005051371641457081,
      -0.00041567746666260064,
      -0.0004791291430592537,
      -0.007213129196316004,
      0.00041310081724077463,
      -0.0023742052726447582,
      -0.006728742271661758,
      0.0022217086516320705,
      0.0058888946659862995,
      0.0038085344713181257,
      1.0089006423950195,
      -0.002719724318012595,
      0.006662856321781874,
      -0.0013261071871966124,
      -0.008494007401168346,
      -0.0030339586082845926,
      -0.002341842744499445,
      -0.002376146148890257,
      0.007656194269657135,
      -0.0022805349435657263,
      0.005113412160426378,
      -0.01102206390351057,
      -0.002781288232654333,
      0.0005947807803750038,
      0.010559377260506153,
      0.009313199669122696,
      0.0010238836985081434,
      0.015210937708616257,
      -0.006782837677747011,
      -0.004538157023489475,
      -0.004252291284501553,
      -0.008283878676593304,
      -0.008962692692875862,
      -0.002872152253985405,
      -0.0048707015812397,
      0.009539645165205002,
      0.005847594700753689,
      -0.0024015307426452637,
      -0.007123219780623913,
      -0.0010397480800747871,
      0.0003129889373667538,
      0.006819321308284998,
      0.00020657468121498823,
      0.0008996164542622864,
      0.0013971172738820314,
      0.001054273103363812,
      0.0019398723961785436,
      0.011288687586784363,
      0.006326019298285246,
      -0.01169594470411539,
      0.0011515264632180333,
      -0.014364958740770817,
      0.018116019666194916,
      -0.0012344709830358624,
      -0.0012605332303792238,
      -0.0008606617338955402,
      -0.003728289157152176,
      -0.00007964635733515024,
      -0.0021759893279522657,
      0.001409214804880321,
      -0.0028582634404301643,
      -0.0019361930899322033,
      -0.0033695686142891645,
      0.012051938101649284,
      0.0011120904237031937,
      -0.0030576952267438173,
      0.003696594387292862,
      0.007543655578047037,
      -0.006223610602319241,
      -0.013272752985358238,
      0.008373341523110867,
      0.010985847562551498,
      0.007920203730463982,
      -0.001066284952685237,
      0.0015465475153177977,
      0.005101698450744152,
      0.0017590010538697243,
      -0.004707841668277979,
      -0.0036706312093883753,
      -0.0044502876698970795,
      0.011705679818987846,
      -0.0034230127930641174,
      -0.013634990900754929,
      -0.005182939115911722,
      0.006411706563085318,
      0.0016164069529622793,
      0.014882808551192284,
      0.0034549380652606487,
      0.0031233769841492176,
      -0.00017851847223937511,
      0.0021365899592638016,
      0.007072839420288801,
      0.010912713594734669,
      0.005771526135504246,
      -0.004687470383942127,
      -0.00644429586827755,
      0.011969543993473053,
      -0.001883543562144041,
      -0.004557847045361996,
      -0.009792476892471313,
      0.003496016375720501,
      -0.004367946181446314,
      0.000478244386613369,
      -0.0005802246159873903,
      -0.0014695439022034407,
      0.0010024562943726778,
      -0.002719724318012595,
      1.0102728605270386,
      0.008851761929690838,
      -0.00837414525449276,
      -0.0037406289484351873,
      0.00848100334405899,
      -0.0018454089295119047,
      0.0038638575933873653,
      -0.0016211960464715958,
      0.0005994761595502496,
      -0.0002546131145209074,
      0.0034666196443140507,
      0.0046467650681734085,
      0.0016670309705659747,
      -0.013385642319917679,
      0.001056796871125698,
      0.0003718073130585253,
      -0.001782967709004879,
      0.00735916243866086,
      0.009069859981536865,
      0.012662816792726517,
      0.005933074746280909,
      0.007945984601974487,
      0.0107014961540699,
      0.009472301229834557,
      -0.0010726829059422016,
      -0.0105831827968359,
      0.000407166313380003,
      -0.011092860251665115,
      -0.008976506069302559,
      -0.002723218407481909,
      -0.013562513515353203,
      -0.004371444694697857,
      0.001399391214363277,
      -0.0058055454865098,
      -0.003350690472871065,
      -0.004522873088717461,
      -0.00018730945885181427,
      -0.00852028839290142,
      0.004846877418458462,
      0.006173735484480858,
      -0.014365626499056816,
      -0.0013137320056557655,
      0.004841567017138004,
      -0.003784846980124712,
      -0.010227544233202934,
      -0.011467145755887032,
      -0.00314159388653934,
      -0.000031056697480380535,
      0.005531843286007643,
      -0.0037630172446370125,
      -0.0006000165594741702,
      0.0011956169037148356,
      0.011288468725979328,
      -0.0022016987204551697,
      -0.004063016269356012,
      -0.005769024603068829,
      -0.00877672340720892,
      -0.00034582940861582756,
      0.004677596967667341,
      -0.0042520491406321526,
      -0.0061302995309233665,
      -0.011482808738946915,
      -0.010360898450016975,
      -0.005358187481760979,
      0.0038019842468202114,
      0.0008610730292275548,
      0.0047441888600587845,
      0.0024634769652038813,
      0.003367407014593482,
      0.002279135398566723,
      -0.0024088150821626186,
      0.0034934175200760365,
      -0.003530053189024329,
      0.0032293624244630337,
      -0.0020394478924572468,
      -0.005064657889306545,
      0.0012490532826632261,
      -0.0010157257784157991,
      0.009454010054469109,
      -0.010364626534283161,
      -0.0075536672957241535,
      -0.0021963738836348057,
      -0.008068829774856567,
      -0.008649168536067009,
      -0.0001530654262751341,
      -0.003963301423937082,
      0.0022765961475670338,
      0.007804932538419962,
      -0.010185031220316887,
      -0.005787898786365986,
      -0.0008675912395119667,
      -0.006856206804513931,
      0.0017768184188753366,
      0.004788542632013559,
      0.005348755046725273,
      0.006662856321781874,
      0.008851761929690838,
      1.0175418853759766,
      -0.011116198264062405,
      -0.013664400205016136,
      0.006439419463276863,
      -0.00470608938485384,
      0.0018395442748442292,
      0.006559289991855621,
      -0.0018193803261965513,
      0.005335758440196514,
      -0.0081368088722229,
      0.0022962968796491623,
      0.002577059203758836,
      -0.003810255089774728,
      0.011471499688923359,
      0.0015559274470433593,
      0.014689767733216286,
      0.0010186756262555718,
      0.005462463479489088,
      0.009920239448547363,
      -0.002278250642120838,
      -0.0007044591475278139,
      0.009178017266094685,
      0.005560422316193581,
      0.009265278466045856,
      -0.005765927489846945,
      -0.002174339024350047,
      -0.020633213222026825,
      -0.011495535261929035,
      -0.002795594511553645,
      -0.008131636306643486,
      -0.004813323263078928,
      0.0026040354277938604,
      -0.005156333092600107,
      -0.002703055739402771,
      -0.0030797505751252174,
      0.012211734429001808,
      -0.0028604893013834953,
      -0.007287097163498402,
      0.008386693894863129,
      -0.03237948939204216,
      0.018429052084684372,
      0.004223816096782684,
      -0.005752055440098047,
      -0.012740954756736755,
      -0.01732731983065605,
      -0.0037102778442204,
      -0.002431358676403761,
      0.007930213585495949,
      -0.007485824637115002,
      -0.002823438961058855,
      -0.0023308848030865192,
      0.02628478594124317,
      -0.0013144932454451919,
      -0.008051309734582901,
      -0.002582722809165716,
      -0.0018156926380470395,
      -0.0072503527626395226,
      -0.009218204766511917,
      0.004315144382417202,
      0.005025426857173443,
      -0.004521556198596954,
      -0.01312110386788845,
      -0.004475966561585665,
      0.010000554844737053,
      0.0029293950647115707,
      0.0002876967191696167,
      -0.0012003451120108366,
      -0.0010163412662222981,
      0.015514872968196869,
      -0.006546017248183489,
      -0.010982483625411987,
      -0.009776429273188114,
      0.0107824532315135,
      -0.0005721991183236241,
      0.010544391348958015,
      0.005243831779807806,
      0.002267285715788603,
      0.010704954154789448,
      -0.0095993522554636,
      -0.0009237016784027219,
      0.009481151588261127,
      -0.0029503540135920048,
      -0.015133852139115334,
      -0.007271030452102423,
      0.008607161231338978,
      0.0005515660159289837,
      0.00398218585178256,
      -0.02252497524023056,
      -0.0028253027703613043,
      -0.005809098016470671,
      0.0024695240426808596,
      -0.00042271375423297286,
      -0.0011840593069791794,
      -0.0025815709959715605,
      -0.0013261071871966124,
      -0.00837414525449276,
      -0.011116198264062405,
      1.0083606243133545,
      0.007156843785196543,
      -0.00657179020345211,
      0.0027301411610096693,
      -0.0025635818019509315,
      -0.0018084637122228742,
      0.0004302911111153662,
      -0.001977863721549511,
      0.0015503056347370148,
      -0.0031160765793174505,
      -0.0018076340202242136,
      0.007872965186834335,
      -0.005016156006604433,
      -0.0007891556015238166,
      -0.004929989576339722,
      -0.0039050488267093897,
      -0.006467854604125023,
      -0.009932458400726318,
      -0.0019289504271000624,
      -0.00350659666582942,
      -0.008706522174179554,
      -0.006698026321828365,
      -0.0031341994181275368,
      0.007307855878025293,
      0.0006615077145397663,
      0.013399397023022175,
      0.008796834386885166,
      0.002396543277427554,
      0.009657235816121101,
      0.003975179046392441,
      -0.0016908016987144947,
      0.004793013446033001,
      0.0026589296758174896,
      0.003365292912349105,
      -0.004714945796877146,
      0.005182532127946615,
      0.0005587756168097258,
      -0.00623917393386364,
      0.019578848034143448,
      -0.006624475587159395,
      -0.003967130556702614,
      0.004065153654664755,
      0.009882507845759392,
      0.012277075089514256,
      0.0029556064400821924,
      0.0009712940081954002,
      -0.005753937643021345,
      0.004736828152090311,
      0.0013964674435555935,
      0.0003476475249044597,
      -0.015715889632701874,
      0.0015655350871384144,
      0.005102149210870266,
      0.0037631583400070667,
      0.004893616773188114,
      0.0030169908422976732,
      0.001399083761498332,
      0.00032715522684156895,
      0.0009421161375939846,
      0.007246701046824455,
      0.010095556266605854,
      0.004312331788241863,
      -0.005744687747210264,
      -0.0015624609077349305,
      -0.002372277667745948,
      -0.0007008427637629211,
      -0.00120366585906595,
      -0.007188888266682625,
      0.003722260007634759,
      0.0026570456102490425,
      0.005527028813958168,
      -0.005779619794338942,
      0.0011962528806179762,
      -0.0017365000676363707,
      -0.0026577177923172712,
      -0.00040828774217516184,
      -0.00871319230645895,
      0.008711867034435272,
      0.0039603072218596935,
      -0.002684045350179076,
      0.005002910271286964,
      0.010072286240756512,
      0.0029333357233554125,
      -0.001498834928497672,
      -0.0013010612456128001,
      -0.005283171311020851,
      0.013711325824260712,
      0.003867575665935874,
      0.0026984510477632284,
      0.007479910273104906,
      -0.0021863360889256,
      -0.005841041915118694,
      -0.00508804339915514,
      -0.008494007401168346,
      -0.0037406289484351873,
      -0.013664400205016136,
      0.007156843785196543,
      1.012357473373413,
      -0.0021737886127084494,
      0.003953325096517801,
      0.00016190751921385527,
      -0.007788157090544701,
      0.0022416161373257637,
      -0.00575727503746748,
      0.010451946407556534,
      0.00010623456910252571,
      -0.0018082025926560163,
      -0.00325941713526845,
      -0.011506233364343643,
      -0.001436519669368863,
      -0.016438039019703865,
      0.002925206208601594,
      -0.0008250763639807701,
      -0.0035675354301929474,
      0.005622379016131163,
      0.005058593116700649,
      -0.0038514318875968456,
      -0.0007096044719219208,
      -0.010339779779314995,
      0.0003225170075893402,
      0.0025109380949288607,
      0.015701990574598312,
      0.00722906831651926,
      0.0014645502669736743,
      0.0011952342465519905,
      0.002693955320864916,
      -0.0019820095039904118,
      0.002276074606925249,
      0.0010262196883559227,
      0.0007861056365072727,
      -0.012961626052856445,
      -0.0016164351254701614,
      0.010306982323527336,
      -0.005477864295244217,
      0.026293745264410973,
      -0.02012086845934391,
      -0.0018177606398239732,
      0.004001184366643429,
      0.007860952988266945,
      0.012017312459647655,
      0.0022004926577210426,
      0.002543530659750104,
      -0.005345870740711689,
      0.005838832352310419,
      0.0026473263278603554,
      0.003104128874838352,
      -0.02154727280139923,
      0.00018816208466887474,
      0.006271351128816605,
      -0.00041428767144680023,
      -0.0028559910133481026,
      0.007447287440299988,
      0.01224861666560173,
      -0.006854143925011158,
      -0.008622504770755768,
      -0.001476626843214035,
      0.008188823238015175,
      0.0018026349134743214,
      -0.008465860970318317,
      -0.002617083489894867,
      0.0022743684239685535,
      0.0026023651007562876,
      0.002899665618315339,
      -0.015100155025720596,
      0.00558483088389039,
      0.013463212177157402,
      0.00837757159024477,
      -0.009600340388715267,
      -0.0005053845816291869,
      -0.013855463825166225,
      -0.004843585193157196,
      -0.002939424943178892,
      -0.0061371224001049995,
      0.004478134214878082,
      -0.0031308894976973534,
      -0.011177567765116692,
      -0.001276540569961071,
      0.011238323524594307,
      0.007573782932013273,
      -0.011217091232538223,
      0.0006559466710314155,
      0.000046578701585531235,
      0.018187345936894417,
      -0.00016908743418753147,
      0.005646085832268,
      0.001031288644298911,
      -0.0006783826975151896,
      -0.0017434005858376622,
      0.0004348460352048278,
      -0.0030339586082845926,
      0.00848100334405899,
      0.006439419463276863,
      -0.00657179020345211,
      -0.0021737886127084494,
      1.0070774555206299,
      -0.0012506332714110613,
      0.003320302115753293,
      -0.002035103039816022,
      0.0006994551513344049,
      -0.0006966518703848124,
      0.003835992654785514,
      0.0039857132360339165,
      0.0012763487175107002,
      -0.011726976372301579,
      -0.00005234964191913605,
      0.00019875343423336744,
      -0.0028928308747708797,
      0.00654149753972888,
      0.007693725638091564,
      0.010540667921304703,
      0.005545278545469046,
      0.007221122272312641,
      0.008838486857712269,
      0.008047748357057571,
      -0.0017778438050299883,
      -0.009030675515532494,
      0.0005572652444243431,
      -0.00818800088018179,
      -0.00708130793645978,
      -0.0022088508121669292,
      -0.011507927440106869,
      -0.0035172339994460344,
      0.0010328392963856459,
      -0.004779341164976358,
      -0.0027823143173009157,
      -0.003805479034781456,
      -0.0012381244450807571,
      -0.007426404394209385,
      0.005005216225981712,
      0.00482820812612772,
      -0.010108201764523983,
      -0.002797484863549471,
      0.003992442972958088,
      -0.002906499896198511,
      -0.008099449798464775,
      -0.008814727887511253,
      -0.0025057150050997734,
      0.00018492701929062605,
      0.004289829637855291,
      -0.00273500825278461,
      -0.0002933798241429031,
      0.0012813771609216928,
      0.007869349792599678,
      -0.001868651481345296,
      -0.002955792471766472,
      -0.004971801303327084,
      -0.007748945616185665,
      0.0003233030438423157,
      0.005021797493100166,
      -0.004209018312394619,
      -0.00596354715526104,
      -0.009950217790901661,
      -0.008186313323676586,
      -0.004435842856764793,
      0.0025499090552330017,
      0.0005193162942305207,
      0.0042493827641010284,
      0.002324735978618264,
      0.0031230763997882605,
      0.000694924034178257,
      -0.0015971519751474261,
      0.004109326750040054,
      -0.0023245224729180336,
      0.0019655004143714905,
      -0.0017874627374112606,
      -0.0054866718128323555,
      0.0006662205560132861,
      -0.001113723497837782,
      0.007580774370580912,
      -0.008498067036271095,
      -0.0067250682041049,
      -0.0028092064894735813,
      -0.007011763285845518,
      -0.006467773579061031,
      0.0004987944848835468,
      -0.004324698820710182,
      0.0020029426086694,
      0.006683631334453821,
      -0.007204372435808182,
      -0.004967565182596445,
      -0.0002730200067162514,
      0.002198286820203066,
      -0.0006112884730100632,
      -0.00163884530775249,
      -0.0015895699616521597,
      -0.002341842744499445,
      -0.0018454089295119047,
      -0.00470608938485384,
      0.0027301411610096693,
      0.003953325096517801,
      -0.0012506332714110613,
      1.0013104677200317,
      -0.0002259058819618076,
      -0.0022091602440923452,
      0.000626419554464519,
      -0.0017000727821141481,
      0.002873141784220934,
      -0.00029808422550559044,
      -0.0006579337641596794,
      -0.00002270890399813652,
      -0.003508805762976408,
      -0.000455088127637282,
      -0.004779062699526548,
      0.0003506781067699194,
      -0.000889930292032659,
      -0.0019633574411273003,
      0.0012568064266815782,
      0.0009456973639316857,
      -0.0019088834524154663,
      -0.0008840313530527055,
      -0.003009568667039275,
      0.0008473544148728251,
      0.0007204422727227211,
      0.005473223049193621,
      0.002794446423649788,
      0.0006303364643827081,
      0.001319246250204742,
      0.0011142049916088581,
      -0.000690807995852083,
      0.0010912767611443996,
      0.0005440581007860601,
      0.000555592414457351,
      -0.003854842856526375,
      0.00012230570428073406,
      0.002731920685619116,
      -0.002072917763143778,
      0.0088663874194026,
      -0.0059114317409694195,
      -0.0008860868983902037,
      0.0014626886695623398,
      0.003071806626394391,
      0.004400165285915136,
      0.0008796565816737711,
      0.0007612697663716972,
      -0.0019879708997905254,
      0.002009548479691148,
      0.0008326254319399595,
      0.0008415100164711475,
      -0.007231507450342178,
      0.00021241091599222273,
      0.0021599172614514828,
      0.000285800255369395,
      -0.00022941676434129477,
      0.002247037598863244,
      0.0033233771100640297,
      -0.0017437066417187452,
      -0.0021381359547376633,
      0.0003742825938388705,
      0.0031791182700544596,
      0.0009182380745187402,
      -0.0027962978929281235,
      -0.0008421274251304567,
      0.00034203752875328064,
      0.0006017867708578706,
      0.000626356981229037,
      -0.004668090492486954,
      0.0018376375082880259,
      0.0037698918022215366,
      0.002750650979578495,
      -0.0030942209996283054,
      -0.000006079120794311166,
      -0.0037754380609840155,
      -0.0015341180842369795,
      -0.0008051248732954264,
      -0.0025024665519595146,
      0.002072002273052931,
      -0.0003982559428550303,
      -0.003179839812219143,
      0.00019169901497662067,
      0.00396769680082798,
      0.00227110693231225,
      -0.0030662338249385357,
      0.000034180411603301764,
      -0.0005400278023444116,
      0.006150494795292616,
      0.0003603155491873622,
      0.0017465355340391397,
      0.0012719470541924238,
      -0.000560320564545691,
      -0.001462459797039628,
      -0.000296836718916893,
      -0.002376146148890257,
      0.0038638575933873653,
      0.0018395442748442292,
      -0.0025635818019509315,
      0.00016190751921385527,
      0.003320302115753293,
      -0.0002259058819618076,
      1.0016769170761108,
      -0.0018051913939416409,
      0.0005764487432315946,
      -0.0009304340928792953,
      0.002975227078422904,
      0.00200429349206388,
      0.0004556119965855032,
      -0.0061950297094881535,
      -0.0011893148766830564,
      -0.00004580193490255624,
      -0.003108595497906208,
      0.0035675945691764355,
      0.0037648065481334925,
      0.004911547992378473,
      0.0033419618848711252,
      0.00412318529561162,
      0.004031462594866753,
      0.003953554201871157,
      -0.0019344520987942815,
      -0.004484317731112242,
      0.000532553531229496,
      -0.0025081669446080923,
      -0.002811129903420806,
      -0.0009567651432007551,
      -0.005635157693177462,
      -0.0014869091100990772,
      0.00031624487019144,
      -0.0021604266948997974,
      -0.001287907361984253,
      -0.001823941245675087,
      -0.0019295304082334042,
      -0.0038779040332883596,
      0.0035453878808766603,
      0.0018612090498209,
      -0.0023979174438863993,
      -0.0034331935457885265,
      0.0018131688702851534,
      -0.0010492912260815501,
      -0.0032565039582550526,
      -0.0031941125635057688,
      -0.0010308551136404276,
      0.0003496136923786253,
      0.0016052681021392345,
      -0.0007777528371661901,
      0.00012086925562471151,
      0.0009547004010528326,
      0.0017579017439857125,
      -0.0009156321757473052,
      -0.0008444616105407476,
      -0.0025286516174674034,
      -0.004164535086601973,
      0.0009145330986939371,
      0.0037499559111893177,
      -0.002798113040626049,
      -0.003854441922158003,
      -0.0051261200569570065,
      -0.003266807645559311,
      -0.002036476042121649,
      0.00041961221722885966,
      -0.000004803994670510292,
      0.00235534505918622,
      0.001425840426236391,
      0.0018552045803517103,
      -0.0011788480915129185,
      -0.00023430149303749204,
      0.003416342195123434,
      -0.0003158042673021555,
      0.000012624193914234638,
      -0.0009451324003748596,
      -0.0041449060663580894,
      -0.00015639723278582096,
      -0.0008541945135220885,
      0.0031713307835161686,
      -0.003797839628532529,
      -0.003680204739794135,
      -0.0025350037030875683,
      -0.0036361529491841793,
      -0.0020989696495234966,
      0.0010150959715247154,
      -0.0032970088068395853,
      0.001068130019120872,
      0.0033476953394711018,
      -0.0017649446381255984,
      -0.0025017454754561186,
      0.000434188696090132,
      -0.00590780982747674,
      0.0019185282289981842,
      0.005090484395623207,
      0.0034407195635139942,
      0.007656194269657135,
      -0.0016211960464715958,
      0.006559289991855621,
      -0.0018084637122228742,
      -0.007788157090544701,
      -0.002035103039816022,
      -0.0022091602440923452,
      -0.0018051913939416409,
      1.0066399574279785,
      -0.0019690310582518578,
      0.004497834015637636,
      -0.009473230689764023,
      -0.002103542210534215,
      0.000652232498396188,
      0.008310012519359589,
      0.008307689800858498,
      0.0009327832376584411,
      0.013301757164299488,
      -0.005432204809039831,
      -0.0033191246911883354,
      -0.002793295308947563,
      -0.006866700015962124,
      -0.00731325801461935,
      -0.0017232652753591537,
      -0.0035822843201458454,
      0.008345752954483032,
      0.004360775928944349,
      -0.002090547000989318,
      -0.00713644502684474,
      -0.001601310446858406,
      0.00006935506826266646,
      0.004992582835257053,
      -0.000150022329762578,
      0.0009011677466332912,
      0.0007926188409328461,
      0.0006764795398339629,
      0.0013696582755073905,
      0.009958207607269287,
      0.004940330050885677,
      -0.009963550604879856,
      0.0014868631260469556,
      -0.01378275454044342,
      0.015903804451227188,
      -0.0007222621934488416,
      -0.0014014507178217173,
      -0.001538263401016593,
      -0.004165825434029102,
      -0.00030932313529774547,
      -0.0019246360752731562,
      0.0016656809020787477,
      -0.002811228623613715,
      -0.0017560776323080063,
      -0.002885740716010332,
      0.011505363509058952,
      0.000814952771179378,
      -0.0030102261807769537,
      0.0028267628513276577,
      0.0059964885003864765,
      -0.005524258129298687,
      -0.01136938389390707,
      0.0070735979825258255,
      0.009238623082637787,
      0.006123292725533247,
      -0.0017300553154200315,
      0.0009586565429344773,
      0.004796047694981098,
      0.0016194027848541737,
      -0.003798053599894047,
      -0.003055261680856347,
      -0.003675255924463272,
      0.010514188557863235,
      -0.003207123139873147,
      -0.011779461987316608,
      -0.004847132600843906,
      0.0059097567573189735,
      0.0012728082947432995,
      0.012762263417243958,
      0.0031471094116568565,
      0.0026819382328540087,
      0.000561408931389451,
      0.0010990891605615616,
      0.005673595238476992,
      0.009473253041505814,
      0.004484828561544418,
      -0.004798816982656717,
      -0.005704551003873348,
      0.010272457264363766,
      -0.0014907587319612503,
      -0.0034327367320656776,
      -0.009425414726138115,
      0.002648135181516409,
      -0.0039246464148163795,
      0.001740267500281334,
      -0.0005702503840439022,
      -0.0015122201293706894,
      -0.0009981361217796803,
      -0.0022805349435657263,
      0.0005994761595502496,
      -0.0018193803261965513,
      0.0004302911111153662,
      0.0022416161373257637,
      0.0006994551513344049,
      0.000626419554464519,
      0.0005764487432315946,
      -0.0019690310582518578,
      1.0005850791931152,
      -0.001323613803833723,
      0.0028229907620698214,
      0.0006734556518495083,
      -0.00017145375022664666,
      -0.002600714098662138,
      -0.0024264121893793344,
      -0.0002693931164685637,
      -0.003926796372979879,
      0.0016833494883030653,
      0.0010835195425897837,
      0.0009723293478600681,
      0.0020873709581792355,
      0.0022426771465688944,
      0.0006345932488329709,
      0.001165621099062264,
      -0.002463187789544463,
      -0.0014075384242460132,
      0.0006186742102727294,
      0.0019618901424109936,
      0.0003622302319854498,
      -0.00005309941479936242,
      -0.0016288512852042913,
      -0.00000850483775138855,
      -0.00024775785277597606,
      -0.00030250224517658353,
      -0.00023889279691502452,
      -0.00045649995445273817,
      -0.0029259566217660904,
      -0.0015528957592323422,
      0.002983539830893278,
      -0.00036232214188203216,
      0.0038738877046853304,
      -0.004685112275183201,
      0.0002702574129216373,
      0.0003659632639028132,
      0.00032868009293451905,
      0.0010852240957319736,
      0.000053050112910568714,
      0.0005646952777169645,
      -0.0004225389566272497,
      0.0007801327737979591,
      0.0005083669675514102,
      0.0008616197155788541,
      -0.0032422421500086784,
      -0.0002657357254065573,
      0.0008349514100700617,
      -0.0008992832736112177,
      -0.0018660626374185085,
      0.0016177513170987368,
      0.0033942540176212788,
      -0.0021279072389006615,
      -0.0027861332055181265,
      -0.001935824053362012,
      0.0003833866212517023,
      -0.00034587254049256444,
      -0.0013624024577438831,
      -0.0004651015333365649,
      0.0011721312766894698,
      0.0009266318520531058,
      0.00111952715087682,
      -0.0030595415737479925,
      0.0009126459481194615,
      0.0035004178062081337,
      0.0013806696515530348,
      -0.001696268212981522,
      -0.00039821071550250053,
      -0.0038078548386693,
      -0.0009089679224416614,
      -0.0007996209897100925,
      -0.00005117809632793069,
      -0.00044728792272508144,
      -0.0017565598245710135,
      -0.002807726850733161,
      -0.0014137341640889645,
      0.0013049457920715213,
      0.0016730020288378,
      -0.003063612850382924,
      0.00046505103819072247,
      0.0011016690405085683,
      0.0026448401622474194,
      -0.0008470654138363898,
      0.0011418369831517339,
      -0.0040840874426066875,
      0.0012899960856884718,
      0.003428759053349495,
      0.002487978432327509,
      0.005113412160426378,
      -0.0002546131145209074,
      0.005335758440196514,
      -0.001977863721549511,
      -0.00575727503746748,
      -0.0006966518703848124,
      -0.0017000727821141481,
      -0.0009304340928792953,
      0.004497834015637636,
      -0.001323613803833723,
      1.0031187534332275,
      -0.00631831306964159,
      -0.0010718880221247673,
      0.0005977665423415601,
      0.004659031517803669,
      0.005890818312764168,
      0.0006830374477431178,
      0.009135238826274872,
      -0.0031643707770854235,
      -0.0015428882325068116,
      -0.0008688995148986578,
      -0.004287750460207462,
      -0.004427639301866293,
      -0.00028928695246577263,
      -0.0016922606155276299,
      0.005735535174608231,
      0.002140945289283991,
      -0.001424881862476468,
      -0.005930130369961262,
      -0.0018846684833988547,
      -0.0001841418561525643,
      0.0023276431020349264,
      -0.00047807645751163363,
      0.0007487201946787536,
      0.00005761778447777033,
      0.00018617481691762805,
      0.0005700580077245831,
      0.006936987861990929,
      0.00272177392616868,
      -0.006542786955833435,
      0.0015653984155505896,
      -0.010850192047655582,
      0.010992106050252914,
      -0.00009081861935555935,
      -0.0013017483288422227,
      -0.0019474875880405307,
      -0.0038879585918039083,
      -0.00048427138244733214,
      -0.0013464652001857758,
      0.0016354331746697426,
      -0.002284213900566101,
      -0.001277364557608962,
      -0.0019127645064145327,
      0.008997284807264805,
      0.00038098503137007356,
      -0.0024487776681780815,
      0.0014810091815888882,
      0.003437299747020006,
      -0.0038866631221026182,
      -0.007538815960288048,
      0.00457577221095562,
      0.005927025340497494,
      0.0032947352156043053,
      -0.0020927905570715666,
      0.0002117524854838848,
      0.003673374652862549,
      0.0012042309390380979,
      -0.0022467030212283134,
      -0.0019228487508371472,
      -0.002278541447594762,
      0.007535821758210659,
      -0.0024449825286865234,
      -0.00792627315968275,
      -0.00368582084774971,
      0.00440208287909627,
      0.0007145238341763616,
      0.008478295058012009,
      0.002304034074768424,
      0.0017858294304460287,
      0.0011993733933195472,
      -0.00011775200255215168,
      0.003316303715109825,
      0.006426806561648846,
      0.0024422919377684593,
      -0.004089265130460262,
      -0.003996082115918398,
      0.006833926774561405,
      -0.0008464473066851497,
      -0.0017302415799349546,
      -0.007450799457728863,
      0.0013546774862334132,
      -0.0028143473900854588,
      0.008315769955515862,
      -0.0027501340955495834,
      -0.007288830354809761,
      -0.004693491384387016,
      -0.01102206390351057,
      0.0034666196443140507,
      -0.0081368088722229,
      0.0015503056347370148,
      0.010451946407556534,
      0.003835992654785514,
      0.002873141784220934,
      0.002975227078422904,
      -0.009473230689764023,
      0.0028229907620698214,
      -0.00631831306964159,
      1.0136497020721436,
      0.0034838123247027397,
      -0.0007171861361712217,
      -0.013182053342461586,
      -0.011491814628243446,
      -0.0012607250828295946,
      -0.018805893138051033,
      0.008454549126327038,
      0.0057000089436769485,
      0.005384513176977634,
      0.010293589904904366,
      0.011153061874210835,
      0.003659368259832263,
      0.00611494854092598,
      -0.011793773621320724,
      -0.007333148270845413,
      0.002970423549413681,
      0.008681966923177242,
      0.00119031872600317,
      -0.0004150603199377656,
      -0.008564500138163567,
      -0.0003008660860359669,
      -0.0010964926332235336,
      -0.0017863211687654257,
      -0.0013371951645240188,
      -0.002443272853270173,
      -0.013944781385362148,
      -0.007902476005256176,
      0.01449652761220932,
      -0.0013576933415606618,
      0.017592111602425575,
      -0.022389095276594162,
      0.0015753514599055052,
      0.0015173164429143071,
      0.0009560403414070606,
      0.004484923556447029,
      0.0000655128387734294,
      0.0026872707530856133,
      -0.0016826805658638477,
      0.003490923438221216,
      0.0023851438891142607,
      0.004174307454377413,
      -0.014767451211810112,
      -0.001396588166244328,
      0.0037341066636145115,
      -0.004626058973371983,
      -0.009409073740243912,
      0.007683253847062588,
      0.016442295163869858,
      -0.010386505164206028,
      -0.01363289263099432,
      -0.009902454912662506,
      0.0012086140923202038,
      -0.001966208452358842,
      -0.00626141345128417,
      -0.0021635612938553095,
      0.0058643450029194355,
      0.004559415392577648,
      0.005531833972781897,
      -0.014434018172323704,
      0.004202616401016712,
      0.0168773140758276,
      0.0063645984046161175,
      -0.00788541417568922,
      -0.002017779741436243,
      -0.018434936180710793,
      -0.004254178609699011,
      -0.0038683509919792414,
      0.0003193761222064495,
      -0.0027473419904708862,
      -0.008814772590994835,
      -0.0135014234110713,
      -0.0072128912433981895,
      0.0056990934535861015,
      0.007957842200994492,
      -0.014825211837887764,
      0.002350202761590481,
      0.0057110972702503204,
      0.01198829896748066,
      -0.004378520417958498,
      0.005385837983340025,
      0.0014680820750072598,
      -0.0006545608048327267,
      -0.0017074797069653869,
      -0.0003189761773683131,
      -0.002781288232654333,
      0.0046467650681734085,
      0.0022962968796491623,
      -0.0031160765793174505,
      0.00010623456910252571,
      0.0039857132360339165,
      -0.00029808422550559044,
      0.00200429349206388,
      -0.002103542210534215,
      0.0006734556518495083,
      -0.0010718880221247673,
      0.0034838123247027397,
      1.002395749092102,
      0.0005575953400693834,
      -0.007384831551462412,
      -0.0013408054364845157,
      -0.000044612184865400195,
      -0.00360096781514585,
      0.004245368298143148,
      0.004507704637944698,
      0.0058983443304896355,
      0.003956491127610207,
      0.00489465007558465,
      0.004847963340580463,
      0.004732588306069374,
      -0.0022400692105293274,
      -0.005364527460187674,
      0.000619062571786344,
      -0.0031102271750569344,
      -0.00341259827837348,
      -0.001154433935880661,
      -0.006746846716850996,
      -0.0017970604822039604,
      0.0003921721945516765,
      -0.0025994833558797836,
      -0.0015473064268007874,
      -0.0021865866146981716,
      -0.0022156494669616222,
      -0.004625682719051838,
      0.0041666231118142605,
      0.0022643227130174637,
      -0.0030532805249094963,
      -0.003963076509535313,
      0.0021809996105730534,
      -0.0012830086052417755,
      -0.0039496342651546,
      -0.0039044152945280075,
      -0.0012482323218137026,
      0.0004000769113190472,
      0.001957341330125928,
      -0.0009713019244372845,
      0.00012581550981849432,
      0.0011196626583114266,
      0.0022544064559042454,
      -0.0010962230153381824,
      -0.0010541289811953902,
      -0.003020777367055416,
      -0.004959665238857269,
      0.00104092329274863,
      0.0043975114822387695,
      -0.003297460498288274,
      -0.00454809470102191,
      -0.006119260564446449,
      -0.003964273724704981,
      -0.002447918290272355,
      0.0005616185953840613,
      0.000012759119272232056,
      0.002800389425829053,
      0.0016865896759554744,
      0.0021979110315442085,
      -0.0013028762768954039,
      -0.0003196587204001844,
      0.00398999685421586,
      -0.0004368628142401576,
      0.00008297374006360769,
      -0.0011265951907262206,
      -0.004858426749706268,
      -0.00015277089551091194,
      -0.0010006451047956944,
      0.003835600335150957,
      -0.004573035519570112,
      -0.004378570709377527,
      -0.0029522718396037817,
      -0.0043390062637627125,
      -0.002589359413832426,
      0.0011602815939113498,
      -0.0038631833158433437,
      0.0012726085260510445,
      0.004002771805971861,
      -0.002239071298390627,
      -0.002990337088704109,
      0.00047927378909662366,
      -0.0007585631683468819,
      0.00016777288692537695,
      0.0004580958338920027,
      0.0006786396843381226,
      0.0005947807803750038,
      0.0016670309705659747,
      0.002577059203758836,
      -0.0018076340202242136,
      -0.0018082025926560163,
      0.0012763487175107002,
      -0.0006579337641596794,
      0.0004556119965855032,
      0.000652232498396188,
      -0.00017145375022664666,
      0.0005977665423415601,
      -0.0007171861361712217,
      0.0005575953400693834,
      1.000401258468628,
      -0.001283584744669497,
      0.0013864533975720406,
      0.0002024772111326456,
      0.0015773754566907883,
      0.0005818882491439581,
      0.001201139879412949,
      0.0019408561056479812,
      0.00011254784476477653,
      0.0004207079182378948,
      0.0017316204030066729,
      0.0012378215324133635,
      0.0009981748880818486,
      -0.001331610488705337,
      -0.0002244328788947314,
      -0.0030741782393306494,
      -0.0018893108936026692,
      -0.000493573141284287,
      -0.0017919004894793034,
      -0.0008297775057144463,
      0.0003879422147292644,
      -0.0009597953176125884,
      -0.0005225493805482984,
      -0.000639903184492141,
      0.0013930525165051222,
      -0.0008670969982631505,
      -0.0005322755314409733,
      0.0013546760892495513,
      -0.004632169846445322,
      0.0020371864084154367,
      0.0007916449103504419,
      -0.0009007317712530494,
      -0.0021115855779498816,
      -0.0027174910064786673,
      -0.0006252198363654315,
      -0.000281673128483817,
      0.001261628931388259,
      -0.001098811742849648,
      -0.00036270637065172195,
      -0.00019265551236458123,
      0.003736707614734769,
      -0.00029025072581134737,
      -0.001182811101898551,
      -0.0006614121957682073,
      -0.0007630923646502197,
      -0.0008559435373172164,
      -0.0007651256746612489,
      0.00022793214884586632,
      0.00019104289822280407,
      -0.001245260937139392,
      -0.0021637389436364174,
      -0.0008532750653102994,
      0.001390575896948576,
      0.00039138030842877924,
      0.0003326708101667464,
      0.00001746511406963691,
      0.00009571245755068958,
      0.001928801997564733,
      -0.0009051819215528667,
      -0.0010428701061755419,
      -0.00134762073867023,
      0.0014443702530115843,
      -0.00019460929615888745,
      0.0008932547643780708,
      0.0006821405841037631,
      0.00019669807807076722,
      0.0018285112455487251,
      -0.0017588206101208925,
      -0.0005832443712279201,
      0.0009520539897494018,
      -0.0008489274769090116,
      -0.002287205308675766,
      -0.0008461496909148991,
      0.0007399333408102393,
      0.0002072104107355699,
      0.0009509689989499748,
      -0.0032344881910830736,
      -0.0006905110785737634,
      -0.0007230829214677215,
      -0.006284896284341812,
      0.002529553137719631,
      0.00663126353174448,
      0.002187467645853758,
      0.010559377260506153,
      -0.013385642319917679,
      -0.003810255089774728,
      0.007872965186834335,
      -0.00325941713526845,
      -0.011726976372301579,
      -0.00002270890399813652,
      -0.0061950297094881535,
      0.008310012519359589,
      -0.002600714098662138,
      0.004659031517803669,
      -0.013182053342461586,
      -0.007384831551462412,
      -0.001283584744669497,
      1.0234575271606445,
      0.006849601864814758,
      0.00047799915773794055,
      0.01496274396777153,
      -0.013734830543398857,
      -0.013650504872202873,
      -0.01727120764553547,
      -0.01348766777664423,
      -0.0162355974316597,
      -0.01397736370563507,
      -0.014368691481649876,
      0.009335017763078213,
      0.01640170067548752,
      -0.00249755778349936,
      0.00582677498459816,
      0.008766650222241879,
      0.0031984634697437286,
      0.020440634340047836,
      0.004880618304014206,
      -0.0007342001772485673,
      0.007444612216204405,
      0.00450929207727313,
      0.006529964040964842,
      0.00988230761140585,
      0.014592395164072514,
      -0.01524503342807293,
      -0.005655140615999699,
      0.003137866035103798,
      0.016949161887168884,
      -0.006267936900258064,
      0.002991328714415431,
      0.010266286320984364,
      0.00914086401462555,
      0.003311906708404422,
      -0.0018326342105865479,
      -0.004743512719869614,
      0.0015976863214746118,
      -0.0010148203000426292,
      -0.004176048561930656,
      -0.0018105520866811275,
      0.0033226143568754196,
      0.0017494452185928822,
      0.009377267211675644,
      0.015912512317299843,
      -0.004965050145983696,
      -0.01641511730849743,
      0.011755681596696377,
      0.016016986221075058,
      0.019147049635648727,
      0.010233433917164803,
      0.007091421168297529,
      0.00028427550569176674,
      0.0005819823127239943,
      -0.009141801856458187,
      -0.005798387806862593,
      -0.0074395788833498955,
      0.0075861313380301,
      -0.0003436822444200516,
      -0.015451626852154732,
      -0.0006465318147093058,
      0.002023805631324649,
      0.003580523421987891,
      0.018212292343378067,
      0.0016189091838896275,
      0.003771369345486164,
      -0.01032516360282898,
      0.01298411563038826,
      0.014192809350788593,
      0.011721551418304443,
      0.013631142675876617,
      0.005286295432597399,
      -0.0053617088124156,
      0.014528978615999222,
      -0.004064769949764013,
      -0.012306388467550278,
      0.0025609368458390236,
      0.009225566871464252,
      -0.0028123059310019016,
      -0.007692545652389526,
      0.002365389373153448,
      0.006298010237514973,
      0.004880265332758427,
      0.009313199669122696,
      0.001056796871125698,
      0.011471499688923359,
      -0.005016156006604433,
      -0.011506233364343643,
      -0.00005234964191913605,
      -0.003508805762976408,
      -0.0011893148766830564,
      0.008307689800858498,
      -0.0024264121893793344,
      0.005890818312764168,
      -0.011491814628243446,
      -0.0013408054364845157,
      0.0013864533975720406,
      0.006849601864814758,
      1.011357307434082,
      0.001354292267933488,
      0.017099615186452866,
      -0.004912002943456173,
      -0.0015728096477687359,
      0.0002474193461239338,
      -0.0072615607641637325,
      -0.007225590758025646,
      0.0010551456362009048,
      -0.0017964220605790615,
      0.010742956772446632,
      0.0024827979505062103,
      -0.002647778019309044,
      -0.012937604449689388,
      -0.004929331596940756,
      -0.000758527428843081,
      0.0023908629082143307,
      -0.0015645417151972651,
      0.001633288455195725,
      -0.0007612325716763735,
      -0.0001486301189288497,
      0.000405358150601387,
      0.013159839436411858,
      0.003896423615515232,
      -0.01171153411269188,
      0.0039019808173179626,
      -0.022782033309340477,
      0.02070009335875511,
      0.0005535273812711239,
      -0.003042444819584489,
      -0.005236399360001087,
      -0.009111359715461731,
      -0.001391855301335454,
      -0.0025644288398325443,
      0.0039388458244502544,
      -0.004906940273940563,
      -0.0025183993857353926,
      -0.00345703586935997,
      0.01879793033003807,
      0.0003940609167329967,
      -0.005264787934720516,
      0.00195026071742177,
      0.005218249745666981,
      -0.007440822198987007,
      -0.013630488887429237,
      0.008061257191002369,
      0.010348411276936531,
      0.0045413370244205,
      -0.005532633513212204,
      -0.00040110619738698006,
      0.007553725503385067,
      0.0024185203947126865,
      -0.0035596387460827827,
      -0.0032860413193702698,
      -0.003826671279966831,
      0.014668225310742855,
      -0.005009463522583246,
      -0.014544688165187836,
      -0.007536599412560463,
      0.008853187784552574,
      0.0010524895042181015,
      0.01535847969353199,
      0.004567554220557213,
      0.0032426989637315273,
      0.0036981329321861267,
      -0.0017784428782761097,
      0.005171669647097588,
      0.011888597160577774,
      0.0034328103065490723,
      -0.009071397595107555,
      -0.007619928102940321,
      0.012397555634379387,
      -0.0012677200138568878,
      -0.0021187111269682646,
      -0.015692386776208878,
      0.0017072590999305248,
      -0.005480495281517506,
      -0.0008884258568286896,
      0.00026271885144524276,
      0.0007013270515017211,
      0.0005951765342615545,
      0.0010238836985081434,
      0.0003718073130585253,
      0.0015559274470433593,
      -0.0007891556015238166,
      -0.001436519669368863,
      0.00019875343423336744,
      -0.000455088127637282,
      -0.00004580193490255624,
      0.0009327832376584411,
      -0.0002693931164685637,
      0.0006830374477431178,
      -0.0012607250828295946,
      -0.000044612184865400195,
      0.0002024772111326456,
      0.00047799915773794055,
      0.001354292267933488,
      1.0001671314239502,
      0.0019574740435928106,
      -0.0003968954551964998,
      0.000035094853956252337,
      0.0003348466707393527,
      -0.000706229533534497,
      -0.0006533944397233427,
      0.000381964462576434,
      0.000018655904568731785,
      0.0012309447629377246,
      0.00003480998566374183,
      -0.00029993720818310976,
      -0.0017815913306549191,
      -0.0007935490575619042,
      -0.00015452851948793977,
      -0.00004791835090145469,
      -0.00028864387422800064,
      0.0002248899545520544,
      -0.00022930579143576324,
      -0.00009833247167989612,
      -0.00006183619552757591,
      0.0015350936446338892,
      0.00025002987240441144,
      -0.0012530876556411386,
      0.0006056478014215827,
      -0.0030123889446258545,
      0.002390043344348669,
      0.0001817183947423473,
      -0.00044737840653397143,
      -0.0008596957195550203,
      -0.0013429870596155524,
      -0.00023873077589087188,
      -0.000300772167975083,
      0.0005944545846432447,
      -0.0006649851566180587,
      -0.00030913151567801833,
      -0.00037556825554929674,
      0.002471937332302332,
      -0.000007084483513608575,
      -0.0007140983361750841,
      0.00008880376117303967,
      0.00039847998414188623,
      -0.0008788831764832139,
      -0.0014816820621490479,
      0.0008403978426940739,
      0.001062606694176793,
      0.0002539137494750321,
      -0.0008975746459327638,
      -0.00017636633128859103,
      0.00097558373818174,
      0.00030375266214832664,
      -0.0003018482821062207,
      -0.00032493489561602473,
      -0.0003663487150333822,
      0.0017711471300572157,
      -0.0006442659068852663,
      -0.001617244677618146,
      -0.0009670109138824046,
      0.001113779260776937,
      0.0000738669405109249,
      0.0016744956374168396,
      0.0005645485362038016,
      0.00035483797546476126,
      0.0006610414711758494,
      -0.0004584479611366987,
      0.0004225760931149125,
      0.001337831374257803,
      0.00020669592777267098,
      -0.0012702371459454298,
      -0.0008951809722930193,
      0.0013546922709792852,
      -0.00009331877663498744,
      -0.00005932952626608312,
      -0.0020819532219320536,
      0.00005991844227537513,
      -0.0006621420034207404,
      -0.011977617628872395,
      0.00382665591314435,
      0.010163744911551476,
      0.007165738381445408,
      0.015210937708616257,
      -0.001782967709004879,
      0.014689767733216286,
      -0.004929989576339722,
      -0.016438039019703865,
      -0.0028928308747708797,
      -0.004779062699526548,
      -0.003108595497906208,
      0.013301757164299488,
      -0.003926796372979879,
      0.009135238826274872,
      -0.018805893138051033,
      -0.00360096781514585,
      0.0015773754566907883,
      0.01496274396777153,
      0.017099615186452866,
      0.0019574740435928106,
      1.0268633365631104,
      -0.00998731143772602,
      -0.005424181930720806,
      -0.0038190018385648727,
      -0.013124327175319195,
      -0.013736564666032791,
      -0.0019275909289717674,
      -0.00590119231492281,
      0.01686147414147854,
      0.007324145641177893,
      -0.004203135147690773,
      -0.01619914546608925,
      -0.004596838261932135,
      -0.00026236986741423607,
      0.008170872926712036,
      -0.0009541807230561972,
      0.002045372501015663,
      0.0007556085474789143,
      0.0008827692363411188,
      0.0021226389799267054,
      0.020281236618757248,
      0.008811994455754757,
      -0.019601188600063324,
      0.003947820980101824,
      -0.03023909404873848,
      0.032239802181720734,
      -0.0007550662849098444,
      -0.003419390879571438,
      -0.004653766751289368,
      -0.010196294635534286,
      -0.001096694846637547,
      -0.003929756581783295,
      0.00421732384711504,
      -0.006291289813816547,
      -0.0036703613586723804,
      -0.005707958247512579,
      0.025138234719634056,
      0.0013355548726394773,
      -0.006741614546626806,
      0.004909505136311054,
      0.01092792209237814,
      -0.011317586526274681,
      -0.022493381053209305,
      0.01379555556923151,
      0.01793244108557701,
      0.010785261169075966,
      -0.005064685363322496,
      0.0011605662293732166,
      0.010344958864152431,
      0.0034303353168070316,
      -0.007042350713163614,
      -0.005865675862878561,
      -0.0069960677064955235,
      0.02178085595369339,
      -0.006897877901792526,
      -0.023505300283432007,
      -0.010408816859126091,
      0.012531371787190437,
      0.0022933760192245245,
      0.0252766665071249,
      0.006603507790714502,
      0.005318992771208286,
      0.0025468459352850914,
      0.0007045860402286053,
      0.010450774803757668,
      0.0189942866563797,
      0.007949983701109886,
      -0.011069373227655888,
      -0.011656701564788818,
      0.02036220207810402,
      -0.0027027034666389227,
      -0.0058434512466192245,
      -0.020732715725898743,
      0.004542413633316755,
      -0.008132675662636757,
      0.004244173876941204,
      -0.001637806766666472,
      -0.004302892833948135,
      -0.0016894034342840314,
      -0.006782837677747011,
      0.00735916243866086,
      0.0010186756262555718,
      -0.0039050488267093897,
      0.002925206208601594,
      0.00654149753972888,
      0.0003506781067699194,
      0.0035675945691764355,
      -0.005432204809039831,
      0.0016833494883030653,
      -0.0031643707770854235,
      0.008454549126327038,
      0.004245368298143148,
      0.0005818882491439581,
      -0.013734830543398857,
      -0.004912002943456173,
      -0.0003968954551964998,
      -0.00998731143772602,
      1.0081286430358887,
      0.007760115899145603,
      0.009602892212569714,
      0.00821737851947546,
      0.009745568968355656,
      0.007689138408750296,
      0.008181964978575706,
      -0.006238128524273634,
      -0.009381256997585297,
      0.0016471778508275747,
      -0.002001420594751835,
      -0.0044115399941802025,
      -0.001709706149995327,
      -0.01162364799529314,
      -0.0025696689262986183,
      0.000251890072831884,
      -0.004076188895851374,
      -0.0024990979582071304,
      -0.003678760724142194,
      -0.006776013411581516,
      -0.008508958853781223,
      0.009625600650906563,
      0.002776198787614703,
      0.0004457053728401661,
      -0.011441363021731377,
      0.0034403358586132526,
      -0.0013742309529334307,
      -0.0052178362384438515,
      -0.004217245150357485,
      -0.0017119257245212793,
      0.0012685288675129414,
      0.0022645187564194202,
      -0.00041781755862757564,
      0.0008082560962066054,
      0.0026607040781527758,
      -0.0008017204236239195,
      -0.0018899398855865002,
      -0.00046793301589787006,
      -0.00541463540866971,
      -0.009372105821967125,
      0.003484260058030486,
      0.010462647303938866,
      -0.007329033687710762,
      -0.009924554266035557,
      -0.011109787039458752,
      -0.005170984659343958,
      -0.003914017230272293,
      -0.0008861392270773649,
      -0.000557376944925636,
      0.005438428837805986,
      0.003548499196767807,
      0.004515360109508038,
      -0.005641464609652758,
      0.0006741498946212232,
      0.010013687424361706,
      0.0010864047799259424,
      -0.001980912173166871,
      -0.0020971246995031834,
      -0.011630835011601448,
      -0.0013423722703009844,
      -0.002414493355900049,
      0.005398840643465519,
      -0.007065836805850267,
      -0.008409084752202034,
      -0.007678714115172625,
      -0.007928503677248955,
      -0.0020726125221699476,
      0.0037226041313260794,
      -0.009292563423514366,
      0.0023877706844359636,
      0.00706351175904274,
      0.00008429470472037792,
      -0.005306669510900974,
      0.0020955041982233524,
      0.0021468105260282755,
      -0.0010524881072342396,
      -0.002734075766056776,
      -0.00017912429757416248,
      -0.004538157023489475,
      0.009069859981536865,
      0.005462463479489088,
      -0.006467854604125023,
      -0.0008250763639807701,
      0.007693725638091564,
      -0.000889930292032659,
      0.0037648065481334925,
      -0.0033191246911883354,
      0.0010835195425897837,
      -0.0015428882325068116,
      0.0057000089436769485,
      0.004507704637944698,
      0.001201139879412949,
      -0.013650504872202873,
      -0.0015728096477687359,
      0.000035094853956252337,
      -0.005424181930720806,
      0.007760115899145603,
      1.0085655450820923,
      0.011414819397032261,
      0.006991769652813673,
      0.008807044476270676,
      0.009458329528570175,
      0.008980153128504753,
      -0.003364772303029895,
      -0.010139288380742073,
      0.0009586384985595942,
      -0.007165846414864063,
      -0.007032813038676977,
      -0.0022977092303335667,
      -0.012817470356822014,
      -0.0036111148074269295,
      0.00090372608974576,
      -0.005089066922664642,
      -0.003001933451741934,
      -0.004187100101262331,
      -0.0031011966057121754,
      -0.008585629984736443,
      0.006999185308814049,
      0.004722927697002888,
      -0.007937325164675713,
      -0.005801199469715357,
      0.004262168426066637,
      -0.002750554820522666,
      -0.008097593672573566,
      -0.008357221260666847,
      -0.0025355895049870014,
      0.0005431306781247258,
      0.004133293405175209,
      -0.0023154406808316708,
      0.000017514685168862343,
      0.0018530874513089657,
      0.006037560291588306,
      -0.002082073362544179,
      -0.0025074612349271774,
      -0.005660009104758501,
      -0.009112362749874592,
      0.0013442917261272669,
      0.007273330818861723,
      -0.005647245328873396,
      -0.007858054712414742,
      -0.011412731371819973,
      -0.008152395486831665,
      -0.004764074459671974,
      0.0017611300572752953,
      0.00024119863519445062,
      0.005090226884931326,
      0.0029634181410074234,
      0.003902627620846033,
      -0.0012031150981783867,
      -0.001065970747731626,
      0.006404351443052292,
      -0.001518630888313055,
      0.0009529795497655869,
      -0.002081780694425106,
      -0.00800885446369648,
      0.00011390214785933495,
      -0.0016423958586528897,
      0.007739598862826824,
      -0.008992068469524384,
      -0.007994145154953003,
      -0.004637814126908779,
      -0.008073423989117146,
      -0.005813609343022108,
      0.0015587951056659222,
      -0.006351665128022432,
      0.0023445338010787964,
      0.007541650906205177,
      -0.00572986900806427,
      -0.00562297273427248,
      0.0004349930677562952,
      0.0013157217763364315,
      -0.0009426897158846259,
      -0.00241637509316206,
      0.000787526136264205,
      -0.004252291284501553,
      0.012662816792726517,
      0.009920239448547363,
      -0.009932458400726318,
      -0.0035675354301929474,
      0.010540667921304703,
      -0.0019633574411273003,
      0.004911547992378473,
      -0.002793295308947563,
      0.0009723293478600681,
      -0.0008688995148986578,
      0.005384513176977634,
      0.0058983443304896355,
      0.0019408561056479812,
      -0.01727120764553547,
      0.0002474193461239338,
      0.0003348466707393527,
      -0.0038190018385648727,
      0.009602892212569714,
      0.011414819397032261,
      1.0157074928283691,
      0.008051703684031963,
      0.010548925958573818,
      0.013195245526731014,
      0.011935736984014511,
      -0.002340332604944706,
      -0.013380151242017746,
      0.0007541925879195333,
      -0.012566766701638699,
      -0.0106889046728611,
      -0.0033118370920419693,
      -0.01707267202436924,
      -0.005283778999000788,
      0.0015852178912609816,
      -0.007140686735510826,
      -0.004148542881011963,
      -0.005656684748828411,
      -0.0014671669341623783,
      -0.01095006987452507,
      0.007119783665984869,
      0.007303456775844097,
      -0.01570897549390793,
      -0.0035738199949264526,
      0.0059626419097185135,
      -0.00441642664372921,
      -0.012214234098792076,
      -0.013390668667852879,
      -0.003772163297981024,
      0.0002019788371399045,
      0.006502593867480755,
      -0.004214406944811344,
      -0.0005091439234092832,
      0.0018095806008204818,
      0.012260034680366516,
      -0.0027720853686332703,
      -0.004553519189357758,
      -0.007349676452577114,
      -0.011392630636692047,
      0.0002683824859559536,
      0.007089501246809959,
      -0.006038421764969826,
      -0.008586278185248375,
      -0.014690840616822243,
      -0.012352108024060726,
      -0.0066187260672450066,
      0.004014527425169945,
      0.0008428181172348559,
      0.006227515172213316,
      0.0033685716334730387,
      0.004542218986898661,
      0.001455339603126049,
      -0.002522494178265333,
      0.005704179406166077,
      -0.00367832207120955,
      0.0031812759116292,
      -0.002632289193570614,
      -0.007732431869953871,
      0.0011232015676796436,
      -0.0015659990021958947,
      0.0113975889980793,
      -0.012708906084299088,
      -0.009868885390460491,
      -0.0038437331095337868,
      -0.010345743037760258,
      -0.009893706999719143,
      0.0005246507935225964,
      -0.0060864947736263275,
      0.0029470829758793116,
      0.009894637390971184,
      -0.0111805759370327,
      -0.007350326515734196,
      -0.0005636808928102255,
      0.005693845916539431,
      -0.0020321630872786045,
      -0.005361834075301886,
      -0.002764068078249693,
      -0.008283878676593304,
      0.005933074746280909,
      -0.002278250642120838,
      -0.0019289504271000624,
      0.005622379016131163,
      0.005545278545469046,
      0.0012568064266815782,
      0.0033419618848711252,
      -0.006866700015962124,
      0.0020873709581792355,
      -0.004287750460207462,
      0.010293589904904366,
      0.003956491127610207,
      0.00011254784476477653,
      -0.01348766777664423,
      -0.0072615607641637325,
      -0.000706229533534497,
      -0.013124327175319195,
      0.00821737851947546,
      0.006991769652813673,
      0.008051703684031963,
      1.0089352130889893,
      0.010217574425041676,
      0.006212528795003891,
      0.007409648969769478,
      -0.0082146180793643,
      -0.008611523546278477,
      0.0021173704881221056,
      0.001848570303991437,
      -0.00238096178509295,
      -0.0012379904510453343,
      -0.010482341051101685,
      -0.0017445117700845003,
      -0.00023402627266477793,
      -0.0032381536439061165,
      -0.002072354778647423,
      -0.0032213975209742785,
      -0.009330869652330875,
      -0.00826086476445198,
      0.011343871243298054,
      0.0012794190552085638,
      0.006611914373934269,
      -0.015339151956140995,
      0.002757374197244644,
      -0.0003292703186161816,
      -0.002978657837957144,
      -0.0010721292346715927,
      -0.0010665355948731303,
      0.0017744058277457952,
      0.0008366949623450637,
      0.0009896754054352641,
      0.0013726390898227692,
      0.0031958066392689943,
      -0.005822549108415842,
      -0.0017058254452422261,
      0.0010452393908053637,
      -0.005111925769597292,
      -0.00935243722051382,
      0.004982432350516319,
      0.012576790526509285,
      -0.008403060957789421,
      -0.01122357975691557,
      -0.010636410675942898,
      -0.0028579714708030224,
      -0.0031995964236557484,
      -0.0028165748808532953,
      -0.0011331806890666485,
      0.005572504363954067,
      0.003899655304849148,
      0.0048651136457920074,
      -0.008784407749772072,
      0.0019410117529332638,
      0.012447386980056763,
      0.002981215249747038,
      -0.004097866825759411,
      -0.00206120521761477,
      -0.014037435874342918,
      -0.0023850630968809128,
      -0.0029289694502949715,
      0.0035527001600712538,
      -0.005487562157213688,
      -0.008525431156158447,
      -0.009746204130351543,
      -0.007643194869160652,
      0.0007302601006813347,
      0.00523297768086195,
      -0.011250035837292671,
      0.0023658573627471924,
      0.006552181672304869,
      0.0043660178780555725,
      -0.004954132717102766,
      0.0032717061694711447,
      0.005905305966734886,
      -0.002182738156989217,
      -0.005747870542109013,
      -0.002640306483954191,
      -0.008962692692875862,
      0.007945984601974487,
      -0.0007044591475278139,
      -0.00350659666582942,
      0.005058593116700649,
      0.007221122272312641,
      0.0009456973639316857,
      0.00412318529561162,
      -0.00731325801461935,
      0.0022426771465688944,
      -0.004427639301866293,
      0.011153061874210835,
      0.00489465007558465,
      0.0004207079182378948,
      -0.0162355974316597,
      -0.007225590758025646,
      -0.0006533944397233427,
      -0.013736564666032791,
      0.009745568968355656,
      0.008807044476270676,
      0.010548925958573818,
      0.010217574425041676,
      1.0118966102600098,
      0.008310087956488132,
      0.009307807311415672,
      -0.008589882403612137,
      -0.010739527642726898,
      0.0022380624432116747,
      -0.00014555070083588362,
      -0.004078897647559643,
      -0.0017643048195168376,
      -0.013197381980717182,
      -0.002584099769592285,
      0.00001751899253576994,
      -0.0043732053600251675,
      -0.0027318752836436033,
      -0.004120856989175081,
      -0.009568030014634132,
      -0.010002939030528069,
      0.012479285709559917,
      0.0024394183419644833,
      0.0041211387142539024,
      -0.015913475304841995,
      0.0037051921244710684,
      -0.0010305234463885427,
      -0.004919012542814016,
      -0.0031983719673007727,
      -0.0016658490058034658,
      0.001807277207262814,
      0.0018693557940423489,
      0.0003210929280612618,
      0.001292437664233148,
      0.00348452921025455,
      -0.003878932213410735,
      -0.0021466680336743593,
      0.00032284867484122515,
      -0.006281006149947643,
      -0.011165259405970573,
      0.005027306266129017,
      0.013707968406379223,
      -0.009365476667881012,
      -0.012591743841767311,
      -0.012973406352102757,
      -0.004820156376808882,
      -0.004251769278198481,
      -0.0021805549040436745,
      -0.0009998995810747147,
      0.006563650444149971,
      0.004436185583472252,
      0.005588401108980179,
      -0.008557375520467758,
      0.00154145248234272,
      0.013358588330447674,
      0.002398643409833312,
      -0.0035947069991379976,
      -0.0024800170212984085,
      -0.015271341428160667,
      -0.0022078421898186207,
      -0.003178904065862298,
      0.00536367017775774,
      -0.007507584523409605,
      -0.010095988400280476,
      -0.010360827669501305,
      -0.009289051406085491,
      -0.0008400233346037567,
      0.0053186481818556786,
      -0.0122213801369071,
      0.0028347806073725224,
      0.008125928230583668,
      0.0025931005366146564,
      -0.006123245693743229,
      0.0031837113201618195,
      0.0005296624731272459,
      -0.0006142831407487392,
      -0.0015570532996207476,
      0.001024846569634974,
      -0.002872152253985405,
      0.0107014961540699,
      0.009178017266094685,
      -0.008706522174179554,
      -0.0038514318875968456,
      0.008838486857712269,
      -0.0019088834524154663,
      0.004031462594866753,
      -0.0017232652753591537,
      0.0006345932488329709,
      -0.00028928695246577263,
      0.003659368259832263,
      0.004847963340580463,
      0.0017316204030066729,
      -0.01397736370563507,
      0.0010551456362009048,
      0.000381964462576434,
      -0.0019275909289717674,
      0.007689138408750296,
      0.009458329528570175,
      0.013195245526731014,
      0.006212528795003891,
      0.008310087956488132,
      1.0111477375030518,
      0.009878633543848991,
      -0.0011615431867539883,
      -0.01103910245001316,
      0.00043508189264684916,
      -0.011507557705044746,
      -0.009334612637758255,
      -0.0028348530177026987,
      -0.014143564738333225,
      -0.00454923277720809,
      0.0014517015079036355,
      -0.006047015078365803,
      -0.0034912375267595053,
      -0.004715049639344215,
      -0.0002486966550350189,
      -0.00889505073428154,
      0.005098665598779917,
      0.006417945027351379,
      -0.01487818080931902,
      -0.001453222706913948,
      0.005043272860348225,
      -0.0039319186471402645,
      -0.010637102648615837,
      -0.011913166381418705,
      -0.0032682782039046288,
      -0.000021939747966825962,
      0.005748865194618702,
      -0.0039015905931591988,
      -0.0006150546832941473,
      0.001260036020539701,
      0.011687586084008217,
      -0.0022960486821830273,
      -0.004212773405015469,
      -0.00601997971534729,
      -0.009167663753032684,
      -0.00033014826476573944,
      0.004930056165903807,
      -0.004463937599211931,
      -0.006430612877011299,
      -0.011984994634985924,
      -0.010774868540465832,
      -0.005582273006439209,
      0.0039314390160143375,
      0.0008875146741047502,
      0.004958513658493757,
      0.0025806117337197065,
      0.0035248175263404846,
      0.0023155193775892258,
      -0.002489924430847168,
      0.0036997064016759396,
      -0.0036481220740824938,
      0.0033294144086539745,
      -0.0021296401973813772,
      -0.00534044299274683,
      0.0012831023195758462,
      -0.0010716962860897183,
      0.009837236255407333,
      -0.010794013738632202,
      -0.007892897352576256,
      -0.0023372299037873745,
      -0.008422693237662315,
      -0.008976644836366177,
      -0.00012853764928877354,
      -0.004180656746029854,
      0.0023776525631546974,
      0.00814233347773552,
      -0.010550292208790779,
      -0.006038658320903778,
      -0.0008818600326776505,
      0.0023479319643229246,
      -0.0011323506478220224,
      -0.0029435809701681137,
      -0.0002523980801925063,
      -0.0048707015812397,
      0.009472301229834557,
      0.005560422316193581,
      -0.006698026321828365,
      -0.0007096044719219208,
      0.008047748357057571,
      -0.0008840313530527055,
      0.003953554201871157,
      -0.0035822843201458454,
      0.001165621099062264,
      -0.0016922606155276299,
      0.00611494854092598,
      0.004732588306069374,
      0.0012378215324133635,
      -0.014368691481649876,
      -0.0017964220605790615,
      0.000018655904568731785,
      -0.00590119231492281,
      0.008181964978575706,
      0.008980153128504753,
      0.011935736984014511,
      0.007409648969769478,
      0.009307807311415672,
      0.009878633543848991,
      1.0094162225723267,
      -0.0036624870263040066,
      -0.01063801720738411,
      0.0010379536543041468,
      -0.007322488818317652,
      -0.0072900885716080666,
      -0.0023931199684739113,
      -0.013437969610095024,
      -0.0037560989148914814,
      0.0009234593599103391,
      -0.005312632769346237,
      -0.0031378143467009068,
      -0.0043847933411598206,
      -0.0034190192818641663,
      -0.009031848981976509,
      0.0074767195619642735,
      0.004887815099209547,
      -0.007998188957571983,
      -0.006343520246446133,
      0.004450527019798756,
      -0.0028363200835883617,
      -0.00839967466890812,
      -0.008619574829936028,
      -0.0026334826834499836,
      0.0006022530724294484,
      0.004270611796528101,
      -0.002356372307986021,
      0.00005188630893826485,
      0.0019842663314193487,
      0.006064277142286301,
      -0.0021829428151249886,
      -0.0025524424854665995,
      -0.005945934914052486,
      -0.00960039347410202,
      0.0015052056405693293,
      0.007789027877151966,
      -0.006014038808643818,
      -0.008356858044862747,
      -0.011997384950518608,
      -0.008453045040369034,
      -0.004977515432983637,
      0.0017413266468793154,
      0.0002200400922447443,
      0.0053714364767074585,
      0.003143309149891138,
      0.004132857080549002,
      -0.0014538737013936043,
      -0.0010481532663106918,
      0.0068923309445381165,
      -0.0014879191294312477,
      0.0008787428960204124,
      -0.0021914136596024036,
      -0.008581367321312428,
      0.00005825399421155453,
      -0.0017610426293686032,
      0.008045741356909275,
      -0.009381316602230072,
      -0.008430201560258865,
      -0.005009263753890991,
      -0.00848994217813015,
      -0.0059596821665763855,
      0.001731945900246501,
      -0.006808608770370483,
      0.0024691021535545588,
      0.007916232571005821,
      -0.005783851258456707,
      -0.005903959274291992,
      0.0005280182231217623,
      -0.007519453298300505,
      0.002400389639660716,
      0.00637585436925292,
      0.004504486918449402,
      0.009539645165205002,
      -0.0010726829059422016,
      0.009265278466045856,
      -0.0031341994181275368,
      -0.010339779779314995,
      -0.0017778438050299883,
      -0.003009568667039275,
      -0.0019344520987942815,
      0.008345752954483032,
      -0.002463187789544463,
      0.005735535174608231,
      -0.011793773621320724,
      -0.0022400692105293274,
      0.0009981748880818486,
      0.009335017763078213,
      0.010742956772446632,
      0.0012309447629377246,
      0.01686147414147854,
      -0.006238128524273634,
      -0.003364772303029895,
      -0.002340332604944706,
      -0.0082146180793643,
      -0.008589882403612137,
      -0.0011615431867539883,
      -0.0036624870263040066,
      1.010583519935608,
      0.00455098319798708,
      -0.002637601923197508,
      -0.010223377496004105,
      -0.0029277438297867775,
      -0.00017721368931233883,
      0.005069084465503693,
      -0.0006191920256242156,
      0.0012908412609249353,
      0.0004479577764868736,
      0.0005390354199334979,
      0.0013122825184836984,
      0.012735250405967236,
      0.005494751501828432,
      -0.012286887504160404,
      0.002507362049072981,
      -0.01905507594347,
      0.020239779725670815,
      -0.0004520234651863575,
      -0.002164598787203431,
      -0.002969214925542474,
      -0.00645544845610857,
      -0.0007030612323433161,
      -0.002467929385602474,
      0.0026736666914075613,
      -0.003967978060245514,
      -0.0023076387587934732,
      -0.0035789869725704193,
      0.01583779975771904,
      0.0008286269148811698,
      -0.004252141807228327,
      0.00305666821077466,
      0.006822323892265558,
      -0.007108740508556366,
      -0.014103883877396584,
      0.008643817156553268,
      0.011233093217015266,
      0.006720366887748241,
      -0.0032278711441904306,
      0.0007043071091175079,
      0.006513757165521383,
      0.0021581004839390516,
      -0.004400724545121193,
      -0.0036722314544022083,
      -0.004377956502139568,
      0.01368824765086174,
      -0.004342708270996809,
      -0.01474476233124733,
      -0.006552614737302065,
      0.007884153164923191,
      0.00143085652962327,
      0.015849951654672623,
      0.004152548499405384,
      0.0033355497289448977,
      0.0016425824724137783,
      0.00039506983011960983,
      0.006528281141072512,
      0.01191789098083973,
      0.004955491982400417,
      -0.0069908336736261845,
      -0.007320812437683344,
      0.012768826447427273,
      -0.0016868197126314044,
      -0.003633848624303937,
      -0.013066193088889122,
      0.002826053649187088,
      -0.005111080594360828,
      -0.0029506792780011892,
      0.0013677026145160198,
      0.0035615202505141497,
      0.0004840162582695484,
      0.005847594700753689,
      -0.0105831827968359,
      -0.005765927489846945,
      0.007307855878025293,
      0.0003225170075893402,
      -0.009030675515532494,
      0.0008473544148728251,
      -0.004484317731112242,
      0.004360775928944349,
      -0.0014075384242460132,
      0.002140945289283991,
      -0.007333148270845413,
      -0.005364527460187674,
      -0.001331610488705337,
      0.01640170067548752,
      0.0024827979505062103,
      0.00003480998566374183,
      0.007324145641177893,
      -0.009381256997585297,
      -0.010139288380742073,
      -0.013380151242017746,
      -0.008611523546278477,
      -0.010739527642726898,
      -0.01103910245001316,
      -0.01063801720738411,
      0.00455098319798708,
      1.0120365619659424,
      -0.001273424830287695,
      0.007682396098971367,
      0.007975646294653416,
      0.0026535470969974995,
      0.015174048021435738,
      0.00414945837110281,
      -0.0009687786223366857,
      0.005928747821599245,
      0.0035140994004905224,
      0.004935845732688904,
      0.004377320874482393,
      0.010292920283973217,
      -0.008869915269315243,
      -0.005322894547134638,
      0.008035263977944851,
      0.007968557998538017,
      -0.004970126785337925,
      0.0030567599460482597,
      0.00920781772583723,
      0.009295035153627396,
      0.0028971373103559017,
      -0.0007811952382326126,
      -0.0046289535239338875,
      0.0024415827356278896,
      -0.00016186072025448084,
      -0.0023683705367147923,
      -0.006029652897268534,
      0.002465194556862116,
      0.002646820852532983,
      0.0067508285865187645,
      0.010985150933265686,
      -0.001994887599721551,
      -0.009299261495471,
      0.007078740745782852,
      0.009801210835576057,
      0.013646398670971394,
      0.00925549864768982,
      0.0055676111951470375,
      -0.001642649993300438,
      -0.00014731555711477995,
      -0.006172553636133671,
      -0.003661625785753131,
      -0.004794020671397448,
      0.0022347625344991684,
      0.0009697156492620707,
      -0.008330912329256535,
      0.001359064830467105,
      -0.0006214596796780825,
      0.002501796232536435,
      0.01025928370654583,
      0.00012263585813343525,
      0.002109119901433587,
      -0.008874062448740005,
      0.010451413691043854,
      0.009670436382293701,
      0.0061090365052223206,
      0.009665890596807003,
      0.006312628276646137,
      -0.0022566327825188637,
      0.008148612454533577,
      -0.0028221849352121353,
      -0.008968177251517773,
      0.005842868238687515,
      0.006693734787404537,
      -0.0008179317228496075,
      0.0018700493965297937,
      -0.0006028465577401221,
      -0.0016002811025828123,
      -0.001102509442716837,
      -0.0024015307426452637,
      0.000407166313380003,
      -0.002174339024350047,
      0.0006615077145397663,
      0.0025109380949288607,
      0.0005572652444243431,
      0.0007204422727227211,
      0.000532553531229496,
      -0.002090547000989318,
      0.0006186742102727294,
      -0.001424881862476468,
      0.002970423549413681,
      0.000619062571786344,
      -0.0002244328788947314,
      -0.00249755778349936,
      -0.002647778019309044,
      -0.00029993720818310976,
      -0.004203135147690773,
      0.0016471778508275747,
      0.0009586384985595942,
      0.0007541925879195333,
      0.0021173704881221056,
      0.0022380624432116747,
      0.00043508189264684916,
      0.0010379536543041468,
      -0.002637601923197508,
      -0.001273424830287695,
      1.0006589889526367,
      0.002380943391472101,
      0.0006020566797815263,
      0.000006451649824157357,
      -0.0014428087742999196,
      0.00009330661850981414,
      -0.00030064352904446423,
      -0.00019088387489318848,
      -0.0001796816650312394,
      -0.0003874340618494898,
      -0.003158623119816184,
      -0.0014789284905418754,
      0.003111615777015686,
      -0.0005364372627809644,
      0.004524586722254753,
      -0.005033890716731548,
      0.000178629532456398,
      0.00048435942153446376,
      0.0005951220518909395,
      0.0014420259976759553,
      0.0001310112711507827,
      0.0006111746188253164,
      -0.0005864818813279271,
      0.0009315727511420846,
      0.0005636236164718866,
      0.0009033927926793694,
      -0.003769615199416876,
      -0.00023564051662106067,
      0.0009978669695556164,
      -0.000836870982311666,
      -0.0018114553531631827,
      0.0017569290939718485,
      0.0035595749504864216,
      -0.002200607443228364,
      -0.002868121489882469,
      -0.0018234171438962221,
      0.0006573880091309547,
      -0.00024825771106407046,
      -0.0015619308687746525,
      -0.0005229737143963575,
      0.0011558558326214552,
      0.0009439435671083629,
      0.0011312724091112614,
      -0.0033608621452003717,
      0.0010430692927911878,
      0.003702105488628149,
      0.0015753023326396942,
      -0.0019094198942184448,
      -0.0003826528845820576,
      -0.003997608553618193,
      -0.001011899090372026,
      -0.0008405892876908183,
      -0.0002769996062852442,
      -0.00024049985222518444,
      -0.001721758977510035,
      -0.0029837065376341343,
      -0.0013390777166932821,
      0.0016134742181748152,
      0.0018121360335499048,
      -0.0032188943587243557,
      0.0004493480082601309,
      0.0010079178027808666,
      0.0030979381408542395,
      -0.0007799803279340267,
      0.0012546906946226954,
      0.007602219469845295,
      -0.0019166073761880398,
      -0.005176325794309378,
      -0.006092158146202564,
      -0.007123219780623913,
      -0.011092860251665115,
      -0.020633213222026825,
      0.013399397023022175,
      0.015701990574598312,
      -0.00818800088018179,
      0.005473223049193621,
      -0.0025081669446080923,
      -0.00713644502684474,
      0.0019618901424109936,
      -0.005930130369961262,
      0.008681966923177242,
      -0.0031102271750569344,
      -0.0030741782393306494,
      0.00582677498459816,
      -0.012937604449689388,
      -0.0017815913306549191,
      -0.01619914546608925,
      -0.002001420594751835,
      -0.007165846414864063,
      -0.012566766701638699,
      0.001848570303991437,
      -0.00014555070083588362,
      -0.011507557705044746,
      -0.007322488818317652,
      -0.010223377496004105,
      0.007682396098971367,
      0.002380943391472101,
      1.0243487358093262,
      0.0138937933370471,
      0.0034422166645526886,
      0.010674490593373775,
      0.00588942039757967,
      -0.0030729048885405064,
      0.00644084345549345,
      0.003412485821172595,
      0.0039707995019853115,
      -0.013618448749184608,
      0.004194969777017832,
      0.007570881862193346,
      -0.010092339478433132,
      0.0378534272313118,
      -0.020430972799658775,
      -0.005286114756017923,
      0.006869143806397915,
      0.0154317207634449,
      0.02070012502372265,
      0.004513006191700697,
      0.0027194563299417496,
      -0.009507138282060623,
      0.008803189732134342,
      0.0032241723965853453,
      0.002463282085955143,
      -0.030684588477015495,
      0.0017266400391235948,
      0.009470037184655666,
      0.0035618548281490803,
      0.0030580295715481043,
      0.008139177225530148,
      0.009747776202857494,
      -0.004321028012782335,
      -0.004894004203379154,
      0.006398009601980448,
      0.015871990472078323,
      0.00562838651239872,
      -0.011616704054176807,
      -0.0033731567673385143,
      -0.0008780653006397188,
      0.0010516990441828966,
      0.0007400955655612051,
      -0.01759745553135872,
      0.00759452348574996,
      0.011857423931360245,
      0.011334442533552647,
      -0.012422877363860607,
      0.0008784633246250451,
      -0.011183701455593109,
      -0.006003896240144968,
      -0.0024133517872542143,
      -0.013066752813756466,
      0.011938659474253654,
      0.0019181593088433146,
      -0.01033264771103859,
      0.004242368508130312,
      0.01791936159133911,
      0.008139652200043201,
      -0.009149064309895039,
      -0.00088324467651546,
      -0.005363949108868837,
      0.026355411857366562,
      0.0038350296672433615,
      0.006590534467250109,
      0.0023390816058963537,
      -0.00035661522997543216,
      -0.0010125871049240232,
      -0.0025771616492420435,
      -0.0010397480800747871,
      -0.008976506069302559,
      -0.011495535261929035,
      0.008796834386885166,
      0.00722906831651926,
      -0.00708130793645978,
      0.002794446423649788,
      -0.002811129903420806,
      -0.001601310446858406,
      0.0003622302319854498,
      -0.0018846684833988547,
      0.00119031872600317,
      -0.00341259827837348,
      -0.0018893108936026692,
      0.008766650222241879,
      -0.004929331596940756,
      -0.0007935490575619042,
      -0.004596838261932135,
      -0.0044115399941802025,
      -0.007032813038676977,
      -0.0106889046728611,
      -0.00238096178509295,
      -0.004078897647559643,
      -0.009334612637758255,
      -0.0072900885716080666,
